
    digraph Tree {
    node [shape=box, style="filled, rounded", color="black", fontname=helvetica] ;
    edge [fontname=helvetica] ;
        0 [label=<X<SUB>2</SUB> &le; 5.0<br/>gini = 0.4578373015873017<br/>samples = 84<br/>value = [12, 21, 38, 13]>, fillcolor="#e58139a4"] ;
    1 [label=<X<SUB>6</SUB> &le; 29.99<br/>gini = 0.0<br/>samples = 48<br/>value = [0, 0, 35, 13]>, fillcolor="#e58139a4"] ;
    3 [label="class = 3", fillcolor="#e58139ff"] ;
    4 [label="class = 4", fillcolor="#e58139ff"] ;
    1 -> 3 [labeldistance=2.5, labelangle=45, headlabel="True"] ;
    1 -> 4 [labeldistance=2.5, labelangle=-45, headlabel="False"] ;
    2 [label=<X<SUB>2</SUB> &le; 12.0<br/>gini = 0.2430555555555555<br/>samples = 36<br/>value = [12, 21, 3, 0]>, fillcolor="#e58139a4"] ;
    5 [label=<X<SUB>5</SUB> &le; 99.21<br/>gini = 0.07936507936507939<br/>samples = 24<br/>value = [1, 20, 3, 0]>, fillcolor="#e58139a4"] ;
    11 [label="class = 2", fillcolor="#e58139ff"] ;
    12 [label="class = 3", fillcolor="#e58139ff"] ;
    5 -> 11 [labeldistance=2.5, labelangle=45, headlabel="True"] ;
    5 -> 12 [labeldistance=2.5, labelangle=-45, headlabel="False"] ;
    6 [label=<X<SUB>4</SUB> &le; 0.17<br/>gini = 0.0<br/>samples = 12<br/>value = [11, 1, 0, 0]>, fillcolor="#e58139a4"] ;
    13 [label="class = 1", fillcolor="#e58139ff"] ;
    14 [label="class = 2", fillcolor="#e58139ff"] ;
    6 -> 13 [labeldistance=2.5, labelangle=45, headlabel="True"] ;
    6 -> 14 [labeldistance=2.5, labelangle=-45, headlabel="False"] ;
    2 -> 5 [labeldistance=2.5, labelangle=45, headlabel="True"] ;
    2 -> 6 [labeldistance=2.5, labelangle=-45, headlabel="False"] ;
    0 -> 1 [labeldistance=2.5, labelangle=45, headlabel="True"] ;
    0 -> 2 [labeldistance=2.5, labelangle=-45, headlabel="False"] ;

    }
    