
    digraph Tree {
    node [shape=box, style="filled, rounded", color="black", fontname=helvetica] ;
    edge [fontname=helvetica] ;
        0 [label=<X<SUB>0</SUB> &le; 2019<br/>gini = 0.3<br/>samples = 5<br/>value = [1, 1, 3, 0]>, fillcolor="#e58139a4"] ;
    1 [label=<X<SUB>3</SUB> &le; 3<br/>gini = 0.0<br/>samples = 4<br/>value = [1, 0, 3, 0]>, fillcolor="#e58139a4"] ;
    3 [label="class = 1", fillcolor="#e58139ff"] ;
    4 [label="class = 3", fillcolor="#e58139ff"] ;
    1 -> 3 [labeldistance=2.5, labelangle=45, headlabel="True"] ;
    1 -> 4 [labeldistance=2.5, labelangle=-45, headlabel="False"] ;
    2 [label="class = 2", fillcolor="#e58139ff"] ;
    0 -> 1 [labeldistance=2.5, labelangle=45, headlabel="True"] ;
    0 -> 2 [labeldistance=2.5, labelangle=-45, headlabel="False"] ;

    }
    